{
  "weights": {
    "layer": 5,
    "hidden_dim": 2048,
    "weight": [
      0.18759167194366455,
      0.0024310853332281113,
      -0.17944499850273132,
      0.4060332477092743,
      0.19912505149841309,
      -0.3523857593536377,
      -0.289360910654068,
      -0.33494505286216736,
      -0.32738783955574036,
      0.22720098495483398,
      0.08864753693342209,
      -0.07104486227035522,
      -0.15917709469795227,
      -0.1900436133146286,
      0.2606185972690582,
      0.12995171546936035,
      -0.21392209827899933,
      0.22736594080924988,
      -0.1615350991487503,
      -0.23228490352630615,
      -0.3150230348110199,
      0.1442428082227707,
      0.32602885365486145,
      0.27160507440567017,
      0.18111483752727509,
      -0.2964515686035156,
      -0.2472049742937088,
      -0.06390222907066345,
      -0.3566391170024872,
      0.2104298323392868,
      -0.15697886049747467,
      -0.2927154004573822,
      -0.05368385836482048,
      0.17630265653133392,
      0.12443026900291443,
      0.37495458126068115,
      -0.3486901521682739,
      -0.3229888677597046,
      0.13192279636859894,
      -0.017081663012504578,
      -0.03277137875556946,
      -0.3987622559070587,
      -0.29868650436401367,
      0.26350173354148865,
      0.3710489273071289,
      -0.2517354190349579,
      -0.3460027277469635,
      0.12532664835453033,
      -0.2543933391571045,
      -0.02086799032986164,
      -0.08514370769262314,
      -0.27874210476875305,
      -0.4669988453388214,
      0.34359991550445557,
      0.21910472214221954,
      0.2602337896823883,
      -0.35645031929016113,
      0.44365572929382324,
      -0.14373649656772614,
      0.32044529914855957,
      0.3067912757396698,
      0.2781982719898224,
      0.3385692238807678,
      -0.12391684204339981,
      -0.16304875910282135,
      -0.34275951981544495,
      0.13979195058345795,
      0.17518796026706696,
      -0.22025024890899658,
      -0.050634801387786865,
      0.304366797208786,
      0.25608548521995544,
      -0.32477259635925293,
      0.1866399645805359,
      0.35855814814567566,
      -0.17557509243488312,
      0.24906958639621735,
      0.3534448742866516,
      -0.2192767858505249,
      0.450774222612381,
      -0.045142076909542084,
      0.12248010188341141,
      -0.24948284029960632,
      -0.15487252175807953,
      0.22209756076335907,
      -0.23770101368427277,
      0.14512242376804352,
      0.24288348853588104,
      -0.2828584313392639,
      -0.29191893339157104,
      -0.16963611543178558,
      0.33962178230285645,
      0.27621108293533325,
      0.05928931385278702,
      -0.14298442006111145,
      -0.335592120885849,
      -0.2919642925262451,
      -0.008472936227917671,
      0.1955503523349762,
      -0.2992798686027527,
      -0.06983552128076553,
      0.34620052576065063,
      0.32854366302490234,
      -0.35344964265823364,
      -0.3543721139431,
      0.29765748977661133,
      0.18873395025730133,
      -0.36623355746269226,
      0.05837985873222351,
      0.30237656831741333,
      -0.21935491263866425,
      -0.2669704556465149,
      0.016711995005607605,
      -0.12673746049404144,
      0.4020242393016815,
      -0.0896734744310379,
      0.2839979827404022,
      -0.2602495551109314,
      -0.03904791921377182,
      0.20933836698532104,
      -0.1975739449262619,
      -0.2765693962574005,
      -0.2711288332939148,
      -0.417132169008255,
      -0.3418577015399933,
      -0.3741254508495331,
      0.13342677056789398,
      0.2395591288805008,
      0.46447449922561646,
      0.32879316806793213,
      -0.27351483702659607,
      -0.3087882399559021,
      0.2611927390098572,
      0.42067447304725647,
      0.2628834545612335,
      0.01465460006147623,
      0.30282723903656006,
      0.2269764542579651,
      -0.28432002663612366,
      0.13614167273044586,
      -0.28053903579711914,
      0.27362141013145447,
      0.30341988801956177,
      0.3870147168636322,
      -0.008370215073227882,
      0.3091870844364166,
      -0.2886184751987457,
      0.0483255572617054,
      -0.28873690962791443,
      -0.39130353927612305,
      0.33095937967300415,
      -0.24226456880569458,
      -0.025265490636229515,
      -0.02808130718767643,
      -0.35363253951072693,
      0.10104598850011826,
      -0.06853467226028442,
      -0.1498490869998932,
      -0.16701030731201172,
      0.24900531768798828,
      0.27760958671569824,
      0.20380868017673492,
      0.2172851413488388,
      -0.22601421177387238,
      -0.25876444578170776,
      -0.29802486300468445,
      0.3054233491420746,
      -0.2258913815021515,
      0.33165085315704346,
      -0.22739511728286743,
      -0.17110081017017365,
      0.28532674908638,
      -0.3057389557361603,
      0.17692974209785461,
      -0.23412322998046875,
      0.3388616442680359,
      0.1511279195547104,
      0.03403778001666069,
      0.34351229667663574,
      -0.2589265704154968,
      -0.07702822983264923,
      0.1474187821149826,
      0.3415706157684326,
      -0.10784957557916641,
      -0.331790953874588,
      0.3838444948196411,
      0.20529133081436157,
      0.10788112878799438,
      0.20122592151165009,
      0.16760939359664917,
      -0.14719977974891663,
      0.45453622937202454,
      0.0655684545636177,
      -0.2735312283039093,
      0.30200526118278503,
      0.3297809362411499,
      0.14403016865253448,
      0.406713604927063,
      0.2685861885547638,
      0.27989912033081055,
      -0.40762409567832947,
      -0.2458568513393402,
      0.2438400834798813,
      0.3383035361766815,
      -0.2876127362251282,
      -0.2614913582801819,
      -0.15482936799526215,
      0.3639017939567566,
      0.2539833188056946,
      -0.33082935214042664,
      -0.3031129837036133,
      -0.054716791957616806,
      -0.3676120638847351,
      -0.34830737113952637,
      -0.4710530936717987,
      0.3128291964530945,
      0.3826136291027069,
      -0.2486177533864975,
      -0.37952059507369995,
      0.08679334819316864,
      0.0204809308052063,
      -0.21945823729038239,
      -0.3408869206905365,
      0.28241896629333496,
      -0.3160233497619629,
      0.25357794761657715,
      -0.33686572313308716,
      -0.28586888313293457,
      0.11894051730632782,
      -0.10969609767198563,
      0.2673676311969757,
      0.004493254236876965,
      0.21126936376094818,
      0.4285299777984619,
      0.3273366093635559,
      -0.30043521523475647,
      -0.3969919681549072,
      -0.4812881052494049,
      -0.1560240238904953,
      0.2799396514892578,
      0.047381650656461716,
      0.2592378258705139,
      -0.1650933474302292,
      -0.32209399342536926,
      0.29841348528862,
      -0.02774944342672825,
      0.3703448176383972,
      -0.17718824744224548,
      0.2992876470088959,
      -0.33484065532684326,
      -0.2605254650115967,
      -0.008097909390926361,
      0.3228420913219452,
      0.23365309834480286,
      0.23275969922542572,
      -0.00994348619133234,
      0.1962655782699585,
      0.3353244960308075,
      -0.0173474308103323,
      -0.3601013720035553,
      -0.26441341638565063,
      -0.10140234977006912,
      0.26830151677131653,
      0.02374233864247799,
      0.009204169735312462,
      -0.2147955596446991,
      -0.0019796998240053654,
      -0.06355912238359451,
      0.01754331961274147,
      -0.2865578532218933,
      -0.08429759740829468,
      -0.1870584487915039,
      -0.3130834698677063,
      -0.0076990858651697636,
      -0.3011776804924011,
      -0.3866938352584839,
      -0.24238985776901245,
      0.1914939433336258,
      0.27956822514533997,
      -0.33986181020736694,
      0.11253216117620468,
      0.16266696155071259,
      -0.16657735407352448,
      -0.12137743830680847,
      -0.2993415296077728,
      -0.1738428920507431,
      0.3404960036277771,
      0.3480472266674042,
      -0.20499825477600098,
      -0.31856536865234375,
      -0.07085631787776947,
      -0.16923531889915466,
      0.29326358437538147,
      0.12353464215993881,
      -0.15899956226348877,
      -0.27875086665153503,
      0.31988289952278137,
      0.34559178352355957,
      -0.3729696273803711,
      -0.16974158585071564,
      0.37157121300697327,
      0.03891696035861969,
      0.1019725650548935,
      0.33012157678604126,
      -0.19294214248657227,
      -0.3147945702075958,
      0.04908452928066254,
      -0.009426141157746315,
      -0.3805471360683441,
      -0.1085556373000145,
      -0.19613410532474518,
      0.302584707736969,
      0.19354797899723053,
      -0.10435506701469421,
      -0.3567453920841217,
      -0.3505312204360962,
      -0.2908349931240082,
      -0.2679729163646698,
      -0.1526244729757309,
      0.09559498727321625,
      -0.34458181262016296,
      0.3828401267528534,
      -0.29679957032203674,
      -0.33056211471557617,
      0.3255687654018402,
      -0.2415131777524948,
      -0.16197356581687927,
      0.14764592051506042,
      0.21673062443733215,
      0.21919205784797668,
      -0.1504894644021988,
      -0.3039380609989166,
      0.14544911682605743,
      0.16286198794841766,
      -0.17848320305347443,
      0.3563983142375946,
      -0.13671573996543884,
      -0.4009435176849365,
      0.4277217984199524,
      -0.2289724200963974,
      0.39284244179725647,
      -0.23997057974338531,
      -0.20452629029750824,
      0.19701245427131653,
      -0.31114134192466736,
      0.24980734288692474,
      0.12025168538093567,
      -0.07598162442445755,
      0.28268325328826904,
      0.14991146326065063,
      0.3594439923763275,
      0.020148195326328278,
      -0.38090381026268005,
      -0.10111168771982193,
      -0.2507898211479187,
      -0.2046646624803543,
      -0.36211830377578735,
      -0.009066814556717873,
      -0.10991434007883072,
      0.3145056962966919,
      -0.0793110653758049,
      -0.33238592743873596,
      -0.2692619562149048,
      0.10672147572040558,
      0.1646340936422348,
      -0.3241576552391052,
      -0.2843858599662781,
      0.15666702389717102,
      0.13157367706298828,
      0.0341094508767128,
      0.014659099280834198,
      0.31256136298179626,
      0.16715769469738007,
      -0.12192980945110321,
      0.05754709988832474,
      -0.4634034037590027,
      -0.07595620304346085,
      0.18418684601783752,
      0.18519656360149384,
      0.3360961377620697,
      0.14745594561100006,
      -0.28613799810409546,
      0.37559154629707336,
      -0.31012728810310364,
      -0.33664244413375854,
      0.4395277202129364,
      0.2785266041755676,
      -0.28065016865730286,
      -0.40864548087120056,
      0.2818233072757721,
      0.11741862446069717,
      -0.2279665470123291,
      -0.2778123915195465,
      0.33215051889419556,
      -0.2658316195011139,
      0.3514692783355713,
      0.23109163343906403,
      -0.2441653460264206,
      -0.06359416246414185,
      0.056748341768980026,
      0.12185701727867126,
      -0.006783380173146725,
      0.32974791526794434,
      -0.08455274254083633,
      0.23565074801445007,
      -0.2822354733943939,
      0.2916657626628876,
      0.13906550407409668,
      0.28885138034820557,
      0.22159552574157715,
      0.07269810140132904,
      0.22493083775043488,
      -0.27038654685020447,
      0.30749595165252686,
      0.19097158312797546,
      0.3366442620754242,
      -0.2907995581626892,
      -0.11477977782487869,
      0.18466608226299286,
      0.29994404315948486,
      -0.3050863742828369,
      -0.2579144537448883,
      0.24646762013435364,
      -0.04003215581178665,
      0.11109523475170135,
      -0.2558654248714447,
      0.2667281925678253,
      0.15469762682914734,
      -0.12899553775787354,
      -0.07949762791395187,
      -0.2854989767074585,
      -0.42425745725631714,
      0.1852276772260666,
      0.28815948963165283,
      0.2478736788034439,
      0.289474219083786,
      -0.17394961416721344,
      -0.006828806828707457,
      -0.2635025084018707,
      -0.2906987965106964,
      0.3825948238372803,
      0.08799277245998383,
      -0.048882629722356796,
      0.28318914771080017,
      -0.2985440790653229,
      0.219400092959404,
      -0.11001162230968475,
      -0.08543334156274796,
      -0.2433769404888153,
      -0.46241462230682373,
      -0.22242459654808044,
      0.19385704398155212,
      0.40302327275276184,
      -0.2980758249759674,
      0.2351105958223343,
      -0.05885957553982735,
      -0.28355836868286133,
      -0.2592025399208069,
      0.37039148807525635,
      0.2317052036523819,
      0.23510318994522095,
      0.4538482129573822,
      0.008675136603415012,
      -0.365589439868927,
      -0.3288092613220215,
      -0.07754608988761902,
      0.2515452802181244,
      0.18455959856510162,
      -0.25674715638160706,
      0.1419680267572403,
      -0.26127707958221436,
      -0.29864048957824707,
      0.32904142141342163,
      0.3156774044036865,
      0.1999577283859253,
      0.081422358751297,
      -0.3899824917316437,
      0.13381242752075195,
      -0.06116481125354767,
      -0.16493642330169678,
      -0.23087376356124878,
      -0.15567715466022491,
      -0.20714348554611206,
      0.30622732639312744,
      -0.37223029136657715,
      0.1981874257326126,
      0.26431918144226074,
      0.09093159437179565,
      -0.08315961062908173,
      -0.13915477693080902,
      0.3743499219417572,
      0.3608318269252777,
      -0.33726900815963745,
      0.3460642993450165,
      -0.13127093017101288,
      -0.33338218927383423,
      0.08534517884254456,
      -0.25341176986694336,
      -0.034447081387043,
      -0.3830726444721222,
      -0.27311182022094727,
      0.07821302115917206,
      0.21417848765850067,
      -0.29007408022880554,
      0.2966092526912689,
      -0.1800852119922638,
      -0.18588581681251526,
      0.08411017805337906,
      0.13696962594985962,
      0.33424025774002075,
      0.12288662046194077,
      -0.23522821068763733,
      0.33312273025512695,
      0.27210599184036255,
      -0.2362719029188156,
      -0.2877773940563202,
      -0.18811121582984924,
      -0.4426937699317932,
      0.3001743257045746,
      -0.16073258221149445,
      -0.14120633900165558,
      -0.021619634702801704,
      0.15663108229637146,
      -0.4077441692352295,
      0.04510503262281418,
      0.313328355550766,
      -0.2690992057323456,
      -0.2787291705608368,
      0.3058544993400574,
      0.2796170115470886,
      -0.34157952666282654,
      0.3320111930370331,
      0.26205822825431824,
      0.14729508757591248,
      -0.22856412827968597,
      -0.3315041661262512,
      0.3476409614086151,
      -0.23409056663513184,
      -0.13979355990886688,
      0.3102669417858124,
      -0.4376518726348877,
      -0.02399442531168461,
      0.26373374462127686,
      -0.07593889534473419,
      -0.2201363444328308,
      -0.36236071586608887,
      -0.4019390046596527,
      0.2812650501728058,
      0.23789042234420776,
      0.13217617571353912,
      -0.18022887408733368,
      -0.042247798293828964,
      0.20968730747699738,
      0.3243594169616699,
      0.13519921898841858,
      0.2658710479736328,
      -0.14990708231925964,
      0.24225573241710663,
      0.2505703866481781,
      -0.10250820219516754,
      -0.11175592988729477,
      -0.024593360722064972,
      -0.28144025802612305,
      0.3129778802394867,
      0.10416512191295624,
      -0.1481245458126068,
      -0.37515437602996826,
      0.08426711708307266,
      -0.341460257768631,
      -0.17213143408298492,
      -0.27361422777175903,
      -0.2613685727119446,
      0.16110378503799438,
      -0.02197842113673687,
      -0.2850949764251709,
      0.32921093702316284,
      -0.26925504207611084,
      0.052252110093832016,
      -0.1032615453004837,
      0.3393356204032898,
      -0.1873122900724411,
      -0.17428146302700043,
      0.24730992317199707,
      0.2599044144153595,
      0.19610950350761414,
      -0.019951684400439262,
      -0.19557572901248932,
      -0.24554213881492615,
      0.4386215806007385,
      0.2767331004142761,
      0.23184427618980408,
      -0.3220447301864624,
      -0.29575249552726746,
      0.3228905200958252,
      -0.19517512619495392,
      -0.46918708086013794,
      -0.2612992823123932,
      0.4122304618358612,
      -0.09419137239456177,
      0.2966287434101105,
      0.35883578658103943,
      0.10230662673711777,
      -0.17235282063484192,
      -0.4907068610191345,
      0.24607738852500916,
      -0.1871752142906189,
      -0.041342541575431824,
      -0.2988739013671875,
      0.3515554964542389,
      -0.30489206314086914,
      0.39565885066986084,
      -0.3125251829624176,
      -0.24951833486557007,
      -0.25149381160736084,
      0.28268975019454956,
      -0.0821455717086792,
      -0.3565156161785126,
      -0.10508415848016739,
      -0.2086063176393509,
      -0.33066481351852417,
      -0.2243230640888214,
      -0.14945659041404724,
      -0.2973059415817261,
      -0.29568424820899963,
      0.3083159625530243,
      -0.28617092967033386,
      -0.3361559212207794,
      0.13445310294628143,
      -0.29117685556411743,
      -0.2416180521249771,
      0.23977802693843842,
      0.05971226468682289,
      -0.3336207866668701,
      -0.15584972500801086,
      0.38887596130371094,
      -0.08150602132081985,
      0.18312901258468628,
      -0.1771552413702011,
      0.2300208956003189,
      0.28758564591407776,
      -0.25310850143432617,
      -0.2730196714401245,
      -0.1524668037891388,
      -0.29501596093177795,
      0.20108473300933838,
      0.33163079619407654,
      -0.062275178730487823,
      -0.15677323937416077,
      0.02716778963804245,
      -0.16152209043502808,
      -0.3153321146965027,
      0.006154270842671394,
      0.1466279774904251,
      -0.23988597095012665,
      0.06526925414800644,
      0.20188704133033752,
      -0.343088835477829,
      0.10548439621925354,
      0.2790226340293884,
      -0.2678350806236267,
      0.09439665079116821,
      -0.3509017825126648,
      -0.3548744320869446,
      -0.17128150165081024,
      0.2877652049064636,
      -0.08165658265352249,
      -0.3397901654243469,
      -0.20201584696769714,
      -0.004354806616902351,
      -0.28238674998283386,
      0.18513207137584686,
      -0.1714191436767578,
      0.2789660096168518,
      -0.2620126008987427,
      -0.3354574739933014,
      0.28111588954925537,
      -0.18078917264938354,
      -0.2927864193916321,
      -0.39434656500816345,
      0.22365951538085938,
      -0.03550432249903679,
      -0.2558676600456238,
      -0.2801530659198761,
      -0.2749979496002197,
      0.139108806848526,
      0.036972612142562866,
      -0.372200608253479,
      -0.08788622170686722,
      0.35827401280403137,
      -0.2824820578098297,
      0.3320664167404175,
      0.4094797372817993,
      -0.3055584728717804,
      -0.2236229032278061,
      0.16771593689918518,
      -0.3033648431301117,
      0.01763013005256653,
      -0.2695014178752899,
      0.29387587308883667,
      -0.05745767802000046,
      -0.12902450561523438,
      -0.2335381954908371,
      -0.0644807443022728,
      0.2449151873588562,
      -0.22207437455654144,
      -0.0604616142809391,
      -0.38146501779556274,
      0.2552330195903778,
      0.293433278799057,
      -0.24073879420757294,
      0.13726221024990082,
      0.20776361227035522,
      0.3300987780094147,
      -0.2807594835758209,
      -0.22226348519325256,
      0.3574831485748291,
      0.09891116619110107,
      -0.2550489902496338,
      -0.3263847827911377,
      0.07538333535194397,
      0.30954089760780334,
      -0.09281356632709503,
      0.3290174603462219,
      0.304402619600296,
      -0.3291521668434143,
      0.09684382379055023,
      -0.23567013442516327,
      -0.37613338232040405,
      0.1840025782585144,
      0.2574346661567688,
      0.013173747807741165,
      0.018420713022351265,
      0.329488605260849,
      0.22416619956493378,
      0.3469952940940857,
      -0.24234537780284882,
      -0.08400698751211166,
      -0.4286479651927948,
      0.1357824057340622,
      -0.21357661485671997,
      0.3769010603427887,
      0.28980329632759094,
      0.3484027087688446,
      0.3668394982814789,
      0.30347782373428345,
      0.14919379353523254,
      -0.329234778881073,
      0.08555375784635544,
      -0.3201732635498047,
      -0.266021728515625,
      -0.15410585701465607,
      0.2834959626197815,
      0.29537123441696167,
      -0.16214396059513092,
      -0.31329545378685,
      0.3319481611251831,
      0.3185637891292572,
      0.23546357452869415,
      0.2728455066680908,
      0.0376514196395874,
      -0.2574005126953125,
      -0.30204346776008606,
      -0.2565775215625763,
      0.17061007022857666,
      -0.3538467288017273,
      0.3080976605415344,
      0.20339855551719666,
      0.26489031314849854,
      0.29036572575569153,
      0.36495518684387207,
      -0.3886389434337616,
      -0.07724595814943314,
      0.12981899082660675,
      0.1153225526213646,
      0.08301038295030594,
      0.03906284272670746,
      0.00937897153198719,
      -0.3222435712814331,
      0.041452210396528244,
      0.1188269853591919,
      0.21801993250846863,
      -0.27350208163261414,
      -0.225041925907135,
      -0.2602780759334564,
      -0.28748568892478943,
      -0.36455830931663513,
      0.367920458316803,
      -0.36441120505332947,
      -0.39402252435684204,
      0.14766249060630798,
      0.14944446086883545,
      -0.014546086080372334,
      0.2534427344799042,
      -0.42996808886528015,
      0.3448787033557892,
      -0.5109520554542542,
      -0.04482823982834816,
      0.3395113945007324,
      -0.3241047263145447,
      -0.22642625868320465,
      0.14346763491630554,
      0.3316494822502136,
      0.11691442877054214,
      0.08273854106664658,
      -0.2920894920825958,
      -0.3682962954044342,
      0.2785852253437042,
      -0.04889732226729393,
      -0.3100208342075348,
      0.11202364414930344,
      -0.000831912737339735,
      -0.24071481823921204,
      -0.30451124906539917,
      0.27134788036346436,
      0.346589595079422,
      -0.29351916909217834,
      -0.2957797944545746,
      0.42361247539520264,
      -0.27937430143356323,
      0.25589022040367126,
      0.19794458150863647,
      0.3379307687282562,
      -0.4540540277957916,
      0.38111990690231323,
      0.037731342017650604,
      0.19078069925308228,
      0.39898234605789185,
      0.34980377554893494,
      0.12546353042125702,
      -0.4561881721019745,
      0.22280961275100708,
      -0.2725321352481842,
      -0.04553048312664032,
      -0.306523859500885,
      0.2119741290807724,
      -0.2825073003768921,
      0.15651851892471313,
      -0.3432551324367523,
      0.31897440552711487,
      -0.18854203820228577,
      0.15022002160549164,
      -0.3667530417442322,
      -0.3349418640136719,
      0.13912346959114075,
      -0.028633980080485344,
      -0.3588205575942993,
      -0.28772491216659546,
      0.22215408086776733,
      -0.3251415491104126,
      0.20568926632404327,
      -0.1099582090973854,
      -0.27202439308166504,
      0.47109684348106384,
      -0.02855083718895912,
      -0.38294821977615356,
      0.04055400565266609,
      0.3340282738208771,
      -0.2773544192314148,
      -0.004411027301102877,
      -0.30819493532180786,
      -0.34229743480682373,
      0.11751683801412582,
      0.32982149720191956,
      -0.29704514145851135,
      -0.4175430238246918,
      -0.24841023981571198,
      -0.28450217843055725,
      -0.25360721349716187,
      0.012689628638327122,
      -0.24459414184093475,
      0.02085455134510994,
      0.2059115171432495,
      0.028661616146564484,
      -0.13043735921382904,
      -0.23970797657966614,
      0.29373928904533386,
      -0.25933343172073364,
      0.06013140827417374,
      0.19143709540367126,
      -0.0042197746224701405,
      0.2869144678115845,
      -0.22493770718574524,
      0.06673545390367508,
      -0.02923114039003849,
      0.22050908207893372,
      -0.1333678662776947,
      0.1327323615550995,
      -0.1389506310224533,
      -0.4150402843952179,
      0.313065767288208,
      0.3265704810619354,
      0.25333642959594727,
      0.007023726589977741,
      0.3701917231082916,
      -0.4063712954521179,
      -0.37447601556777954,
      0.3658587634563446,
      0.03149911016225815,
      -0.24197261035442352,
      0.17989951372146606,
      0.1826244443655014,
      0.3466266393661499,
      0.12035878747701645,
      -0.2690412402153015,
      0.1646532267332077,
      -0.23272906243801117,
      -0.38862448930740356,
      -0.08090957999229431,
      0.23104572296142578,
      -0.15077543258666992,
      0.20565809309482574,
      0.3343418836593628,
      0.0423201285302639,
      0.2755826413631439,
      -0.2781119644641876,
      -0.106856569647789,
      0.45409536361694336,
      0.0522860623896122,
      -0.10726258903741837,
      -0.30410951375961304,
      0.17825719714164734,
      0.2561657726764679,
      -0.26509925723075867,
      0.15024490654468536,
      -0.15720714628696442,
      -0.203708678483963,
      -0.028171295300126076,
      0.17859598994255066,
      -0.12319456040859222,
      0.2916124165058136,
      0.1660424917936325,
      -0.3467196524143219,
      -0.4025774896144867,
      -0.4337117075920105,
      -0.34453579783439636,
      0.3104788362979889,
      0.15925166010856628,
      -0.2709077298641205,
      0.11668937653303146,
      -0.06265881657600403,
      0.21008095145225525,
      -0.18323920667171478,
      0.2673945724964142,
      0.3457966148853302,
      0.170414999127388,
      0.28789597749710083,
      -0.3609010875225067,
      0.17048639059066772,
      0.19143418967723846,
      0.4858117401599884,
      -0.2911139130592346,
      -0.07288064807653427,
      -0.14188756048679352,
      -0.2841455340385437,
      -0.32245898246765137,
      -0.38836729526519775,
      0.3012101352214813,
      -0.21891380846500397,
      -0.301245778799057,
      0.1814233660697937,
      0.28938958048820496,
      0.3676673471927643,
      -0.3846183121204376,
      0.2986965775489807,
      -0.29087933897972107,
      0.16109099984169006,
      -0.17026707530021667,
      -0.26830384135246277,
      -0.12387332320213318,
      -0.4487003684043884,
      -0.2270301878452301,
      0.16953133046627045,
      -0.3557930886745453,
      0.29477155208587646,
      0.34203600883483887,
      -0.05384485423564911,
      -0.29721513390541077,
      -0.4343682527542114,
      -0.12081678956747055,
      0.04196293652057648,
      -0.2726077735424042,
      0.17191927134990692,
      0.285116970539093,
      -0.13010874390602112,
      -0.33092960715293884,
      -0.09738890826702118,
      -0.37696415185928345,
      -0.17899931967258453,
      0.17762747406959534,
      0.12334258109331131,
      0.29510805010795593,
      0.29444384574890137,
      -0.046858977526426315,
      -0.3171437680721283,
      0.3625412583351135,
      -0.09133690595626831,
      -0.36436325311660767,
      0.3353941738605499,
      -0.40687957406044006,
      -0.13303950428962708,
      0.24420329928398132,
      -0.3005751967430115,
      0.3471859395503998,
      0.2549598217010498,
      -0.12403114885091782,
      0.15661826729774475,
      0.2231205552816391,
      0.3442160189151764,
      0.06751548498868942,
      0.33594244718551636,
      0.26480868458747864,
      0.25862443447113037,
      -0.02533045783638954,
      0.13230006396770477,
      -0.2481575757265091,
      0.355066180229187,
      0.2794264256954193,
      0.36064285039901733,
      -0.030925404280424118,
      0.022759415209293365,
      -0.3067065477371216,
      -0.011079800315201283,
      0.3918793797492981,
      -0.3589906692504883,
      -0.3390282690525055,
      -0.2701035439968109,
      0.32176241278648376,
      0.23344095051288605,
      0.46433165669441223,
      0.3255550265312195,
      0.26961055397987366,
      -0.11850100010633469,
      -0.1558876782655716,
      -0.1478845477104187,
      -0.3643394112586975,
      0.26718583703041077,
      -0.3321940302848816,
      0.3094298839569092,
      0.3216281235218048,
      0.4156631827354431,
      -0.3858703672885895,
      0.28139787912368774,
      0.36214104294776917,
      -0.2153954654932022,
      -0.3284812867641449,
      0.2777291536331177,
      0.08022299408912659,
      0.39600512385368347,
      -0.058364856988191605,
      -0.1422860324382782,
      -0.23053361475467682,
      0.4065929353237152,
      0.09915415197610855,
      -0.21439331769943237,
      -0.1867731660604477,
      0.17030183970928192,
      -0.3182617723941803,
      0.3491497337818146,
      -0.37909024953842163,
      -0.39944687485694885,
      -0.3877224624156952,
      -0.007747377268970013,
      -0.26891303062438965,
      -0.30319759249687195,
      0.30220869183540344,
      -0.21396413445472717,
      0.09790641069412231,
      0.3081558048725128,
      0.29131239652633667,
      -0.13855516910552979,
      0.018476836383342743,
      -0.26581528782844543,
      0.3898818790912628,
      -0.2671303153038025,
      0.35250112414360046,
      -0.05536176264286041,
      -0.1598176211118698,
      -0.12162693589925766,
      -0.46256640553474426,
      0.3149578869342804,
      0.05341948941349983,
      -0.27407407760620117,
      -0.29039549827575684,
      -0.3935791850090027,
      -0.23948228359222412,
      0.16544725000858307,
      0.2655334770679474,
      -0.18126115202903748,
      -0.4364580810070038,
      -0.08356856554746628,
      0.297468364238739,
      -0.019063705578446388,
      -0.3461819589138031,
      0.033651597797870636,
      -0.37219753861427307,
      -0.2085174173116684,
      -0.28745749592781067,
      0.1921246498823166,
      -0.2440732717514038,
      -0.3445197641849518,
      -0.29749801754951477,
      0.2846580147743225,
      0.33540046215057373,
      -0.1982884556055069,
      -0.30438467860221863,
      -0.2851131558418274,
      0.40061649680137634,
      0.07704950869083405,
      0.1178627610206604,
      -0.03004799410700798,
      -0.022492315620183945,
      0.010254783555865288,
      -0.27364689111709595,
      0.5011330842971802,
      -0.2318386435508728,
      -0.18089792132377625,
      -0.35284948348999023,
      0.4080478549003601,
      -0.036903996020555496,
      0.07433928549289703,
      -0.3033808767795563,
      0.1908283531665802,
      0.3112228810787201,
      -0.352626234292984,
      0.13269135355949402,
      -0.23433010280132294,
      0.3505445420742035,
      0.07174478471279144,
      0.21987032890319824,
      0.2847817540168762,
      0.15415669977664948,
      0.42720529437065125,
      0.42078444361686707,
      -0.29911643266677856,
      -0.24837395548820496,
      0.35947883129119873,
      0.19016699492931366,
      -0.1369791179895401,
      0.2622252106666565,
      0.3160899579524994,
      -0.036339666694402695,
      0.3918377161026001,
      -0.25970929861068726,
      0.009759737178683281,
      -0.22943271696567535,
      -0.2509552240371704,
      -0.31166449189186096,
      -0.051562752574682236,
      0.34786751866340637,
      0.3258509933948517,
      -0.2917185127735138,
      -0.27178511023521423,
      -0.12094838172197342,
      -0.20040680468082428,
      -0.10988426953554153,
      -0.08176757395267487,
      0.37160083651542664,
      -0.12851998209953308,
      -0.33569735288619995,
      0.28233250975608826,
      -0.4987441301345825,
      0.08662211894989014,
      0.1896175742149353,
      0.4410775601863861,
      0.19361403584480286,
      0.21110308170318604,
      0.3668525815010071,
      0.27358898520469666,
      0.25846630334854126,
      -0.23899860680103302,
      -0.3162098228931427,
      0.2364918291568756,
      -0.039160389453172684,
      -0.44156575202941895,
      0.3753384053707123,
      -0.26984116435050964,
      -0.022449957206845284,
      0.27765628695487976,
      0.24574868381023407,
      0.3323056697845459,
      -0.2796902358531952,
      -0.2763842046260834,
      -0.09364396333694458,
      -0.3614419400691986,
      0.30882659554481506,
      -0.27496618032455444,
      -0.22694556415081024,
      0.42152708768844604,
      -0.2834168076515198,
      0.3759661614894867,
      0.1471625566482544,
      -0.25518327951431274,
      -0.38776925206184387,
      -0.3731774389743805,
      0.27936169505119324,
      0.29383838176727295,
      0.07446982711553574,
      -0.21208558976650238,
      -0.08490325510501862,
      -0.38127726316452026,
      -0.24135717749595642,
      -0.3493281900882721,
      0.22959883511066437,
      0.256762832403183,
      -0.3441171646118164,
      0.3031443655490875,
      -0.2668777108192444,
      0.24770918488502502,
      0.4281143844127655,
      0.36399295926094055,
      -0.08499651402235031,
      0.31697526574134827,
      -0.3508193790912628,
      0.25015872716903687,
      0.07347304373979568,
      0.24600903689861298,
      -0.3391672670841217,
      -0.34207478165626526,
      -0.06172449141740799,
      -0.37970295548439026,
      -0.2554243206977844,
      0.3034283220767975,
      -0.11410215497016907,
      0.0041780672036111355,
      -0.2917932868003845,
      -0.14996211230754852,
      0.19533811509609222,
      -0.17314869165420532,
      0.23127390444278717,
      0.30245718359947205,
      -0.006547243800014257,
      0.01875213347375393,
      -0.2448946088552475,
      -0.19902947545051575,
      -0.2607569992542267,
      -0.24398352205753326,
      0.16684368252754211,
      -0.18823856115341187,
      0.2682182490825653,
      0.3471526503562927,
      0.0014206909108906984,
      -0.17653626203536987,
      0.028668265789747238,
      -0.34732186794281006,
      0.060481373220682144,
      -0.2890915274620056,
      0.2713136076927185,
      -0.1972581446170807,
      -0.2304079234600067,
      -0.0565243624150753,
      -0.22136737406253815,
      0.20856906473636627,
      0.29971835017204285,
      -0.2261449247598648,
      -0.3497624695301056,
      -0.19848167896270752,
      -0.10730265080928802,
      0.3716806471347809,
      -0.4034505784511566,
      -0.36963361501693726,
      0.032532259821891785,
      0.04204824939370155,
      0.17384517192840576,
      -0.1980544924736023,
      0.20359764993190765,
      -0.27121102809906006,
      -0.20434744656085968,
      0.15001633763313293,
      0.028866015374660492,
      -0.024991419166326523,
      0.42589622735977173,
      -0.2987062931060791,
      -0.358062744140625,
      0.33880552649497986,
      0.25512632727622986,
      -0.04802433028817177,
      -0.33395111560821533,
      0.24386540055274963,
      0.3166356682777405,
      -0.325786828994751,
      -0.22470885515213013,
      -0.22640609741210938,
      -0.38862624764442444,
      -0.4600861072540283,
      -0.1500139832496643,
      -0.33427271246910095,
      0.11526241898536682,
      -0.19027289748191833,
      -0.28282028436660767,
      0.3402346670627594,
      -0.09429208189249039,
      -0.26360517740249634,
      0.23105654120445251,
      0.3066510558128357,
      0.3330453336238861,
      0.14057926833629608,
      0.3044591248035431,
      -0.29059624671936035,
      0.017355535179376602,
      0.23854045569896698,
      0.06639352440834045,
      0.10583487898111343,
      0.23624245822429657,
      -0.35643917322158813,
      -0.2223423272371292,
      0.24923783540725708,
      -0.2893602252006531,
      0.24464106559753418,
      0.22138752043247223,
      -0.43913915753364563,
      0.2149428278207779,
      0.3112509846687317,
      -0.3408403992652893,
      0.3532167673110962,
      -0.32072383165359497,
      0.2954188585281372,
      0.16007007658481598,
      0.20940114557743073,
      0.35533997416496277,
      -0.3354042172431946,
      0.24327249825000763,
      -0.0465615913271904,
      0.11689668148756027,
      -0.3160148561000824,
      0.06614577025175095,
      0.21037137508392334,
      -0.04754071682691574,
      0.38467344641685486,
      -0.26045843958854675,
      -0.027995292097330093,
      0.16104283928871155,
      -0.30813831090927124,
      0.3636934459209442,
      0.17961706221103668,
      -0.3082183301448822,
      -0.1674942970275879,
      0.08849837630987167,
      -0.18020227551460266,
      -0.31345975399017334,
      0.12013311684131622,
      -0.4211338758468628,
      0.2455068826675415,
      -0.2439752221107483,
      0.0355805940926075,
      0.47423526644706726,
      -0.3343864679336548,
      0.3113971948623657,
      -0.3905145525932312,
      -0.2308734804391861,
      0.08415637910366058,
      -0.17952583730220795,
      -0.25840336084365845,
      -0.135687917470932,
      -0.3865746855735779,
      0.41992950439453125,
      -0.007272019516676664,
      -0.288808137178421,
      0.36161795258522034,
      -0.19095872342586517,
      -0.017693933099508286,
      0.29702234268188477,
      -0.2888880670070648,
      -0.32086777687072754,
      0.2700637876987457,
      -0.15873518586158752,
      0.1435602307319641,
      -0.4075561761856079,
      0.34891605377197266,
      0.362202912569046,
      0.13173717260360718,
      0.3666572570800781,
      0.2585216164588928,
      0.4526413679122925,
      0.0317300409078598,
      -0.16828195750713348,
      0.25925183296203613,
      0.2921808063983917,
      -0.34928542375564575,
      0.09486324340105057,
      -0.2772311270236969,
      -0.2951944172382355,
      -0.1994955837726593,
      0.24840675294399261,
      -0.32783591747283936,
      0.0017550857737660408,
      0.08742062747478485,
      0.29269275069236755,
      -0.3545759618282318,
      0.4970502257347107,
      0.027783097699284554,
      0.2796112596988678,
      -0.23246905207633972,
      0.19858649373054504,
      -0.2728988230228424,
      0.1261477917432785,
      0.3163803815841675,
      0.15766684710979462,
      0.1733807921409607,
      -0.07296759635210037,
      0.28260472416877747,
      -0.012553813867270947,
      0.3625040352344513,
      -0.13446173071861267,
      0.3225642740726471,
      -0.22776032984256744,
      -0.26541462540626526,
      -0.2708626985549927,
      -0.4124714434146881,
      0.12105774879455566,
      -0.3235948085784912,
      -0.06346431374549866,
      0.4497729241847992,
      0.2188802808523178,
      -0.019760562106966972,
      -0.26780760288238525,
      -0.388816773891449,
      0.046107351779937744,
      0.36715054512023926,
      -0.02380497381091118,
      -0.3633039593696594,
      0.08234972506761551,
      0.3538503348827362,
      -0.3146853744983673,
      -0.25735580921173096,
      -0.15473708510398865,
      0.05518025532364845,
      -0.23067709803581238,
      0.00630719680339098,
      0.38588404655456543,
      -0.33487334847450256,
      0.5358486771583557,
      -0.2806052565574646,
      0.06146547570824623,
      0.2646564841270447,
      -0.24581900238990784,
      -0.2720296084880829,
      0.1936219483613968,
      -0.1296430081129074,
      -0.3519562780857086,
      -0.1580112874507904,
      -0.27917638421058655,
      0.32245704531669617,
      -0.00255861459299922,
      -0.3287431597709656,
      -0.34393659234046936,
      -0.34681716561317444,
      -0.2527329921722412,
      -0.1798732876777649,
      -0.18251550197601318,
      0.24904756247997284,
      0.06874482333660126,
      0.10219363123178482,
      -0.252641886472702,
      -0.07071871310472488,
      0.3049162030220032,
      -0.2847153842449188,
      0.3365948796272278,
      0.2963711619377136,
      -0.31472063064575195,
      -0.3835758864879608,
      -0.3300955891609192,
      -0.16067804396152496,
      0.03288217633962631,
      -0.11578283458948135,
      0.28163743019104004,
      0.3355713486671448,
      0.050788648426532745,
      -0.25434237718582153,
      -0.2274375855922699,
      -0.21795320510864258,
      0.2108960896730423,
      0.2799336910247803,
      -0.2850593030452728,
      -0.16890211403369904,
      -0.13165046274662018,
      0.02007923647761345,
      -0.16815131902694702,
      -0.03730211779475212,
      0.11144036799669266,
      0.34314045310020447,
      -0.35210084915161133,
      -0.14052391052246094,
      -0.05088469013571739,
      0.26603540778160095,
      -0.06477009505033493,
      -0.33649754524230957,
      0.2566957473754883,
      -0.15346203744411469,
      -0.3693424463272095,
      0.26796436309814453,
      -0.2325378805398941,
      -0.2901770770549774,
      -0.23549993336200714,
      -0.14447206258773804,
      -0.07313806563615799,
      -0.20549972355365753,
      0.25162848830223083,
      -0.36941057443618774,
      0.29692861437797546,
      0.29297301173210144,
      -0.15539482235908508,
      0.30103573203086853,
      0.22129477560520172,
      0.2582316994667053,
      0.3009117841720581,
      0.043327055871486664,
      0.23135745525360107,
      0.3058701753616333,
      0.15612462162971497,
      -0.12411939352750778,
      -0.029133174568414688,
      -0.12187493592500687,
      -0.24586771428585052,
      -0.38610923290252686,
      -0.3283834457397461,
      -0.22749167680740356,
      -0.011376773938536644,
      -0.1984880417585373,
      -0.32516494393348694,
      0.2916272282600403,
      0.37642261385917664,
      0.18733085691928864,
      0.48066115379333496,
      0.40431684255599976,
      -0.35725900530815125,
      0.3887470066547394,
      -0.3145911395549774,
      0.27401623129844666,
      0.3287198543548584,
      0.2938968241214752,
      -0.309821218252182,
      -0.18545402586460114,
      -0.25703364610671997,
      -0.1728811264038086,
      0.38308846950531006,
      -0.348246693611145,
      0.27800455689430237,
      0.23886431753635406,
      0.3348645865917206,
      -0.14657153189182281,
      0.36141350865364075,
      0.18479113280773163,
      -0.2763025164604187,
      0.3346985876560211,
      -0.41439464688301086,
      -0.15311838686466217,
      0.3742755353450775,
      -0.02937394753098488,
      0.3448522388935089,
      0.25838637351989746,
      -0.2763296663761139,
      -0.15820226073265076,
      -0.35682907700538635,
      -0.2358846366405487,
      0.3642895817756653,
      -0.06570806354284286,
      0.3419273793697357,
      -0.3157521188259125,
      -0.32076147198677063,
      0.2533952593803406,
      0.33935701847076416,
      0.04037772864103317,
      -0.3238138258457184,
      0.3510996401309967,
      -0.055961914360523224,
      -0.2928493022918701,
      0.33870822191238403,
      -0.20336496829986572,
      -0.08110330998897552,
      -0.1199597492814064,
      0.38151323795318604,
      -0.3198244571685791,
      -0.34643346071243286,
      0.24311769008636475,
      -0.3391769826412201,
      0.1851135790348053,
      -0.42772671580314636,
      0.06336784362792969,
      0.33514082431793213,
      0.034416563808918,
      -0.3067595064640045,
      -0.4188726842403412,
      0.3224206268787384,
      0.36711642146110535,
      0.2720393240451813,
      0.30576664209365845,
      -0.013041896745562553,
      0.23936213552951813,
      -0.21403808891773224,
      -0.10517813265323639,
      0.3371067941188812,
      0.35693687200546265,
      -0.14278751611709595,
      0.3258424699306488,
      -0.2746073007583618,
      0.33468684554100037,
      -0.18492890894412994,
      0.05392123758792877,
      0.1233561784029007,
      -0.3639245629310608,
      -0.2998627722263336,
      0.2944524884223938,
      0.4100406765937805,
      -0.30407819151878357,
      -0.1875522881746292,
      -0.24977874755859375,
      -0.28020215034484863,
      0.04825228825211525,
      0.03980899229645729,
      -0.2754761576652527,
      -0.016314463689923286,
      -0.1870950311422348,
      0.25032156705856323,
      -0.35902631282806396,
      0.2400694042444229,
      0.156023770570755,
      0.32050278782844543,
      0.06342171877622604,
      -0.06079312041401863,
      -0.14631351828575134,
      -0.2825910449028015,
      -0.3758784532546997,
      -0.2459430694580078,
      0.09813664853572845,
      -0.3880597651004791,
      -0.10548481345176697,
      0.31631404161453247,
      0.21745285391807556,
      0.041494302451610565,
      -0.03822604939341545,
      0.130979523062706,
      -0.03277036175131798,
      -0.30548176169395447,
      -0.3014329671859741,
      0.33104267716407776,
      0.341140478849411,
      -0.290029376745224,
      -0.33492720127105713,
      -0.15143050253391266,
      0.3907366991043091,
      -0.30567267537117004,
      -0.3800686001777649,
      0.2789302468299866,
      0.3301462233066559,
      -0.1471172720193863,
      0.3670205771923065,
      0.23510444164276123,
      -0.21063362061977386,
      -0.02623237669467926,
      -0.3841421902179718,
      -0.20656901597976685,
      -0.00487334281206131,
      0.1778159886598587,
      -0.17397724092006683,
      -0.027776578441262245,
      0.34830135107040405,
      -0.21023330092430115,
      0.21967579424381256,
      -0.2674165666103363,
      0.0914265513420105,
      -0.04392628371715546,
      -0.09874586760997772,
      0.031387366354465485,
      -0.3683554232120514,
      -0.0030075316317379475,
      -0.21921588480472565,
      -0.32989683747291565,
      -0.1920955330133438,
      -0.3082353472709656,
      0.14037583768367767,
      0.18972247838974,
      -0.3143632709980011,
      -0.038520049303770065,
      0.28194546699523926,
      -0.1918192207813263,
      -0.3149111270904541,
      -0.2570754289627075,
      -0.3807367980480194,
      -0.20891240239143372,
      -0.03861723467707634,
      -0.0918726697564125,
      -0.3031126856803894,
      0.33715179562568665,
      0.3471667766571045,
      -0.3482924997806549,
      0.23472659289836884,
      0.32778483629226685,
      -0.0007245723390951753,
      0.26959317922592163,
      0.0278934258967638,
      -0.13060669600963593,
      0.24779830873012543,
      0.45355287194252014,
      -0.219045490026474,
      -0.33462491631507874,
      0.24622122943401337,
      -0.15602119266986847,
      0.19917157292366028,
      0.1968965083360672,
      -0.4129033088684082,
      0.3313436806201935,
      -0.38406699895858765,
      -0.13118629157543182,
      0.14249947667121887,
      0.23231086134910583,
      0.2896629869937897,
      -0.31814080476760864,
      0.0772605687379837,
      -0.3467711806297302,
      0.02457621693611145,
      0.29524412751197815,
      0.35144662857055664,
      -0.21184803545475006,
      -0.3396272361278534,
      -0.03119182400405407,
      -0.30754008889198303,
      -0.17734888195991516,
      -0.28788480162620544,
      0.25432872772216797,
      0.3925234079360962,
      0.35422953963279724,
      0.2594080865383148,
      0.040488433092832565,
      0.4059336185455322,
      0.015343239530920982,
      -0.3027951717376709,
      -0.22969047725200653,
      -0.2644346058368683,
      -0.4437873959541321,
      0.2380981594324112,
      0.007433298509567976,
      0.4168189764022827,
      0.34037670493125916,
      0.053732819855213165,
      -0.28461626172065735,
      -0.14159747958183289,
      -0.34090742468833923,
      -0.2587217688560486,
      0.032539136707782745,
      -0.09386701881885529,
      -0.09587009251117706,
      0.5114949345588684,
      0.11320860683917999,
      0.2618561387062073,
      0.29872065782546997,
      0.40495359897613525,
      0.03605525568127632,
      -0.21761976182460785,
      -0.01185571402311325,
      -0.3578934371471405,
      -0.08430837839841843,
      0.20590457320213318,
      -0.2939298748970032,
      0.3130580484867096,
      0.22061587870121002,
      -0.19324831664562225,
      0.3283078670501709,
      0.40660786628723145,
      0.2996489405632019,
      -0.11406995356082916,
      -0.3260338008403778,
      0.08211717009544373,
      -0.2910473346710205,
      -0.31929147243499756,
      -0.13385064899921417,
      -0.11162787675857544,
      -0.30149033665657043,
      0.34058332443237305,
      -0.24528615176677704,
      -0.36691561341285706,
      0.41512542963027954,
      -0.16984927654266357,
      -0.22554387152194977,
      -0.10858289897441864,
      -0.28148651123046875,
      -0.20099486410617828,
      -0.36424851417541504,
      0.17729555070400238,
      0.2905205488204956,
      0.23547177016735077,
      0.36469200253486633,
      0.08229008316993713,
      -0.28710514307022095,
      0.14092983305454254,
      -0.1784956455230713,
      -0.2788369655609131,
      0.08825568109750748,
      0.34968796372413635,
      -0.23784594237804413,
      0.28184083104133606,
      0.3435397744178772,
      -0.2743641436100006,
      -0.12063664942979813,
      0.052691750228405,
      -0.06784271448850632,
      -0.20763008296489716,
      -0.3878568112850189,
      0.2538492679595947,
      0.33255794644355774,
      0.3138827681541443,
      -0.21554246544837952,
      -0.24581719934940338,
      0.2998436391353607,
      0.180925190448761,
      0.40912067890167236,
      -0.20093859732151031,
      -0.3209337294101715,
      -0.34308648109436035,
      -0.3612150251865387,
      0.33587509393692017,
      0.21122881770133972,
      -0.2880048453807831,
      0.014524061232805252,
      -0.2959115207195282,
      -0.36965978145599365,
      0.3888958990573883,
      0.2565080523490906,
      0.21409299969673157,
      0.2960205674171448,
      -0.25047191977500916,
      0.3638664782047272,
      0.2346697598695755,
      0.2554107904434204,
      -0.09295684844255447,
      0.2726849615573883,
      0.15810716152191162,
      0.2593942880630493,
      0.05385025590658188,
      0.22137479484081268,
      0.13156817853450775,
      0.2661159932613373,
      -0.3003579378128052,
      0.30635401606559753,
      -0.20415449142456055,
      -0.273991197347641,
      0.30070021748542786,
      -0.026355020701885223,
      0.21409040689468384,
      0.002689871471375227,
      -0.25187644362449646,
      0.29667529463768005,
      -0.10429506003856659,
      0.20641587674617767,
      0.23586353659629822,
      0.22437700629234314,
      -0.3134900629520416,
      -0.335509717464447,
      0.43622004985809326,
      0.02129146084189415,
      -0.2969387471675873,
      0.015484648756682873,
      0.08420611172914505,
      0.25567421317100525,
      -0.053303271532058716,
      0.2067307084798813,
      0.3847556412220001,
      0.33621686697006226,
      0.23052100837230682,
      -0.1270030438899994,
      0.30807703733444214,
      0.40671420097351074,
      -0.09304121136665344,
      -0.3085494935512543,
      -0.3238658905029297,
      -0.41056326031684875,
      -0.2522432804107666,
      0.34836485981941223,
      0.28879374265670776,
      -0.14730647206306458,
      0.3712533116340637,
      0.319511741399765,
      -0.17892180383205414,
      -0.34307271242141724,
      -0.3094576299190521,
      0.15111318230628967,
      0.33993619680404663,
      -0.29283905029296875,
      0.22908268868923187,
      -0.3194630742073059,
      0.19174166023731232,
      0.17783959209918976,
      -0.05272694304585457,
      0.2301374077796936,
      -0.2816714644432068,
      -0.27743929624557495,
      -0.3673463761806488,
      -0.2479742020368576,
      0.238632470369339,
      0.23147352039813995,
      -0.340131551027298,
      0.3018365800380707,
      -0.4118325710296631,
      0.16290852427482605,
      -0.3631139099597931,
      0.32046452164649963,
      0.31507137417793274,
      -0.0762719139456749,
      0.36413711309432983,
      0.0484529472887516,
      0.29526060819625854,
      0.21218322217464447,
      0.2584598660469055,
      0.0625523179769516,
      0.16615116596221924,
      -0.1907118558883667,
      0.3335491120815277,
      -0.25914597511291504,
      0.2337530255317688,
      0.2443283200263977,
      0.007638207636773586,
      0.2151978760957718,
      0.22867143154144287,
      0.29385843873023987,
      -0.25643765926361084,
      -0.3465711176395416,
      -0.3026157021522522,
      0.3955419659614563,
      -0.0026141295675188303,
      0.22101782262325287,
      0.17028911411762238,
      0.42023637890815735,
      -0.37395089864730835,
      -0.1868709921836853,
      0.024503450840711594,
      -0.09691660851240158,
      -0.06729834526777267,
      -0.013268915936350822,
      0.28535473346710205,
      -0.2774045765399933,
      0.07967543601989746,
      0.31682902574539185,
      0.29399779438972473,
      -0.30905768275260925,
      -0.22024714946746826,
      -0.2569853663444519,
      -0.0907880961894989,
      0.2747838497161865,
      -0.2925817668437958,
      -0.2607346773147583,
      0.1942489892244339,
      -0.23065102100372314,
      0.0842372328042984,
      0.0612185001373291,
      -0.16940148174762726,
      0.22306637465953827,
      -0.15129989385604858,
      0.06889599561691284,
      0.02266031689941883,
      0.11919538676738739,
      -0.2894268333911896,
      -0.2868213355541229,
      0.12434132397174835,
      -0.3581545054912567,
      0.3615870475769043,
      0.19680418074131012,
      0.42782312631607056,
      0.3454984426498413,
      -0.3778977394104004,
      -0.20707695186138153,
      0.27124395966529846,
      -0.3119129538536072,
      0.35485103726387024,
      -0.3652757704257965,
      -0.28198957443237305,
      0.3401886224746704,
      0.3753665089607239,
      -0.02633853629231453,
      0.1413935124874115,
      -0.1713830977678299,
      0.08965154737234116,
      0.31353509426116943,
      0.29533490538597107,
      -0.079330213367939,
      -0.40221455693244934,
      -0.2981873154640198,
      0.31834787130355835,
      0.29685962200164795,
      0.1687399297952652,
      0.3578202426433563,
      -0.15609809756278992,
      -0.2652681767940521,
      0.3979634940624237,
      0.32138681411743164,
      0.3943248391151428,
      -0.3171350955963135,
      -0.05358618497848511,
      -0.2999882400035858,
      -0.45653805136680603,
      -0.36753153800964355,
      -0.0265266764909029,
      0.29081422090530396,
      0.2465662956237793,
      0.3238579034805298,
      0.22629708051681519,
      -0.33237728476524353,
      -0.3890010714530945,
      0.2819266617298126,
      0.31495118141174316,
      0.10059789568185806,
      -0.3465508818626404,
      0.15159079432487488,
      0.030703959986567497,
      0.34238335490226746,
      -0.3131521940231323,
      0.4144284725189209,
      0.0904974639415741,
      -0.2650463879108429,
      -0.3890785276889801,
      -0.48752057552337646,
      0.13415460288524628,
      0.2504797875881195,
      0.3371566832065582,
      0.28502050042152405,
      0.23990590870380402,
      -0.03574955835938454,
      0.1685657948255539,
      0.4099133312702179,
      0.19384685158729553,
      0.32960304617881775,
      0.3265213668346405,
      0.32343602180480957,
      -0.13479876518249512,
      0.341353178024292,
      0.26219600439071655,
      -0.16231559216976166,
      0.352384090423584,
      0.3390638530254364,
      0.2494152933359146,
      -0.40570077300071716,
      0.30748483538627625,
      0.3563976287841797,
      -0.22071705758571625,
      0.35322415828704834,
      -0.2897677719593048,
      -0.26373162865638733,
      -0.3336789608001709,
      0.3206307590007782,
      0.20669427514076233,
      -0.10584399104118347,
      0.23197104036808014,
      -0.21257144212722778,
      -0.2832982540130615,
      0.3921036422252655,
      -0.29317089915275574,
      0.36244824528694153,
      -0.25085577368736267,
      -0.1498556286096573,
      -0.3635845482349396
    ],
    "bias": 0.03076230362057686,
    "train_accuracy": 0.9947916865348816,
    "test_accuracy": 0.90625,
    "n_train_pairs": 192,
    "n_test_pairs": 48,
    "n_epochs": 50,
    "lr": 0.01,
    "seed": 42
  },
  "n_train_pairs": 192,
  "n_test_pairs": 48
}